7 64
0 -0.00083996396 0.00037712965 0.008007143 0.0140989525 -0.014562877 -0.011131486 0.010119715 0.0140481135 -0.007830928 -0.0058801817 0.011560188 -0.0023879712 -0.007086352 0.010234903 -0.0076090638 -0.0028327592 0.004506542 0.0015571571 -0.012956303 -0.014753816 0.011437857 0.007940848 0.010593268 0.001169155 0.0099390885 -0.005309615 -0.001477739 0.009028377 -0.011749074 -0.006149392 -0.011732316 -0.0014400856 0.014880287 -0.0114605855 -0.0036648763 -0.0030306673 0.012631878 -0.009247822 9.767109e-05 -0.0074429787 -0.014997143 0.00784159 -0.01368836 -0.0068783467 -4.3944692e-05 -0.0004653638 -0.011981601 0.015027843 0.0077707875 0.014423491 -0.012735353 0.0070260554 -0.006477436 0.001316016 0.013290842 -0.0069939843 0.007059435 -0.010609512 -0.005548072 0.014674152 -0.002463899 0.00050540874 -0.0064724786 -0.01200629
1 -0.0023586084 0.0038663582 -0.0013727336 0.008653698 -0.004297605 0.0035228296 0.008537688 0.013053583 -0.0022693956 -0.014389229 0.006845512 0.0008997054 0.0116317365 -0.0012735015 -0.004133801 -0.013679869 -0.0013359839 0.0044230428 0.008438929 0.011016902 -0.008906749 0.0029117353 0.00952892 -0.007506565 -0.004850454 0.010624057 0.0025499589 0.00030842025 0.0054310546 0.00034298416 0.015028462 0.00791616 -0.013940442 -0.011009918 0.0014006366 0.009984417 -0.013461276 0.005731261 0.008118826 0.008965244 0.011670106 -0.009628432 0.0017209968 0.009440303 -0.0044329185 -0.009645019 -0.00064798497 -0.0130762495 -0.0087546 0.011105925 0.0052395035 0.011291511 0.010616129 0.011775739 -0.005912135 -0.0008878827 0.0036739015 -0.007067886 0.013106513 -0.015407956 0.010573075 0.0045534736 -0.007709631 0.0068680574
3 -0.002720313 0.0104919635 0.015575901 -0.00681558 -0.00093931064 -0.008907304 0.0060218703 0.004362037 0.010767998 0.009532319 0.014914635 0.014496105 0.012348038 -0.010921201 -0.014316773 -0.0005621518 -0.004847572 0.012343469 0.009282525 -0.0024227416 0.0023636664 0.0027997345 0.012223713 -0.014866064 -0.0003207039 0.005422457 -0.0014691409 0.013105623 0.014082567 0.0102159325 -0.001115458 0.012052884 -0.013334101 0.0050101103 -0.0072484566 -0.007953843 0.0056121796 0.008389539 0.012144716 -0.009013995 0.011615615 0.010355975 -0.0058064293 -0.013671155 0.008497406 0.010175841 -0.0012350377 -0.010488053 -0.011074642 -0.0038930816 0.008034143 -0.0057233223 -0.014646638 0.005981291 0.007639531 -0.010050009 0.0018937128 -0.0032505165 4.028808e-05 -0.015447613 0.004210188 -0.007426473 0.0016947363 -0.0024680959
4 0.0034366378 -0.012325165 -0.004238999 0.0041790963 0.008341699 -0.00372982 -0.0148558635 0.00704562 0.0001461868 0.00480579 -0.010652319 -0.002161537 0.011968518 0.011482537 -0.0057285563 0.004143435 -0.012982138 0.009683684 -0.007265198 -0.004929182 0.014555848 0.0013713873 0.011710525 -0.009490325 0.008075867 0.015509315 -0.013212303 -0.008035333 -0.011051644 -0.0076072863 -0.0058982265 -0.013345483 0.012424426 -0.007586652 0.013158416 0.008227619 -0.010235905 0.006195863 0.008551845 -0.011608676 -0.011578207 -0.0038654043 -0.013466239 -0.002467449 -0.0006277075 0.0051436797 0.0022527652 -0.001360941 -0.0087411795 0.0026914112 -0.0013972 0.010613769 0.006214474 0.007090971 0.0022347986 -0.004222062 -0.006833271 -0.0016010556 0.0022372813 -0.0041254316 -0.011064576 -0.012185808 -0.014249749 -0.009270482
5 -0.0028841638 -0.0067655453 -0.010085768 -0.005796165 0.0066939816 -0.0058473866 0.013096069 0.0024071408 -0.011317832 0.014748684 0.011926308 0.008581235 -0.010708694 0.009105588 0.00626462 0.00811691 0.0066563026 0.0030309123 -0.0049719578 0.013058664 0.015038356 0.0059356517 -0.0044193547 3.7435534e-06 0.0019198183 -0.013212081 -0.012857647 -0.00036372503 0.001922686 -0.008983358 -0.0073891147 -0.0114881005 0.013017694 0.00017490248 -0.007050088 0.0089120725 0.01435105 -0.006397544 0.01245818 0.00838728 0.009178884 0.00080910634 0.012833838 -0.010977282 -0.012877078 0.014532932 -0.00031195063 -0.0030618426 0.007190941 -0.0064078285 0.004289312 0.010847231 0.009476787 -0.011725925 0.01466791 0.0072920523 0.0061914925 -0.009753708 0.013214008 -0.0033555096 0.013780635 -0.008381038 -0.012708317 0.01066026
2 0.0026124879 -0.0034356762 0.014882395 0.014847339 -0.0152870435 0.0039133704 0.009631474 0.0060600545 0.003164402 0.0006749165 0.0010596155 -0.0059710075 -0.011163373 -0.0032672521 0.006131072 0.01379004 0.014478772 -0.0093411105 -0.014703686 0.015267406 0.0053666406 0.008081233 0.009829987 -0.004389741 0.0114529785 0.004427088 0.0044883126 -0.0037177736 -0.0048901862 -0.0037052636 0.0066855364 0.00012141752 -0.014988922 -0.015116292 -0.00961692 -0.00020268485 0.0031267304 0.014750813 0.008737186 -0.006713168 0.00043635973 0.0077668666 0.012035067 -0.0017941847 0.0067626373 -0.009089681 -0.0012598144 0.012665889 -0.0036928048 -0.015110267 0.009038115 -0.006144736 -0.00191633 0.015609776 -0.0035240012 -0.007442885 -0.008332391 0.010913568 -0.008927425 0.003302717 -0.008217591 0.009569251 0.0068122167 0.0040736254
6 -0.002329819 -0.004290726 0.014051463 0.008149646 -0.0033789389 -0.01479736 -0.011603206 -0.0016620979 -0.0012421049 -0.0040045455 0.01512925 -0.0007164404 0.009177752 -0.011636857 -0.003915742 -0.008671664 -0.011154711 0.0019391105 -0.011213619 -0.0035072155 0.005811412 0.009114254 0.0018721595 0.003285516 -0.006422486 0.011289582 -0.009854753 0.0072612725 -0.012843709 0.003181979 -0.007776644 -0.0066370144 -0.0048577897 0.008836262 0.009059999 -0.007772889 0.0012083277 -0.013274655 0.012202822 0.014464516 -0.0042848885 0.001250349 0.0011666417 0.008559193 -0.013446998 0.0009132102 0.01073347 0.0034868643 0.0017573051 -0.01456587 0.013253696 -0.009787701 -0.004675586 0.0054590404 -0.0012072325 0.002205141 0.0027843602 -0.010670155 -0.01519502 0.014125913 0.009684458 -0.010801449 0.0053179413 0.00032197312
